net
{
     node_size = (0 0);
     name = "New BN";
     tree = "(C1,C2,C3,C4,C5,C6,C7,C8,C9,C10,C11,C12,C13,C14,C15,C16,C17,C18,C19,C20,C21,C22,C23,C24,C25,C26,C27,C28,C29,C30,C31,C32,C33,C34,C35,C36,C37,C38,C39,C40,C41,C42,C43,C44,C45,C46,C47,C48,C49,C50,C51,C52,C53,C54,C55)";
     UnBBayes_Color_Probabilistic_Description = "-256";
     UnBBayes_Color_Probabilistic_Explanation = "-16711936";
}

node likelihood_of_attack
{
     label = "C1";
     position = (325 0);
     states = ("Low" "Medium" "High");
}

node typical_severity
{
     label = "C2";
     position = (708 0);
     states = ("Low" "Medium" "High" "Very High");
}

node skills_required
{
     label = "C3";
     position = (1011 0);
     states = ("none" "low" "medium" "high");
}

node parametar_injection
{
     label = "C4";
     position = (0 185);
     states = ("yes" "no");
}

node argument_injection
{
     label = "C5";
     position = (68 184);
     states = ("yes" "no");
}

node formal_string_injection
{
     label = "C7";
     position = (144 187);
     states = ("yes" "no");
}

node flash_injection
{
     label = "C9";
     position = (220 190);
     states = ("yes" "no");
}

node identity_spoofing
{
     label = "C11";
     position = (293 195);
     states = ("yes" "no");
}

node pharming
{
     label = "C12";
     position = (365 194);
     states = ("yes" "no");
}

node phishing
{
     label = "C13";
     position = (437 196);
     states = ("yes" "no");
}

node dns_rebinding
{
     label = "C18";
     position = (499 206);
     states = ("yes" "no");
}

node token_impersonaation
{
     label = "C22";
     position = (562 194);
     states = ("yes" "no");
}

node terrestrial_jamming
{
     label = "C25";
     position = (631 201);
     states = ("yes" "no");
}

node resource_location_spoofing
{
     label = "C27";
     position = (702 201);
     states = ("yes" "no");
}

node action_spoofing
{
     label = "C30";
     position = (772 214);
     states = ("yes" "no");
}

node clickjacking
{
     label = "C31";
     position = (842 219);
     states = ("yes" "no");
}

node task_impersonation
{
     label = "C33";
     position = (910 226);
     states = ("yes" "no");
}

node software_integrity_attack
{
     label = "C35";
     position = (982 217);
     states = ("yes" "no");
}

node malicius_human_behavior
{
     label = "C37";
     position = (1049 224);
     states = ("yes" "no");
}

node influence_perception
{
     label = "C38";
     position = (1103 230);
     states = ("yes" "no");
}

node route_disabiling
{
     label = "C43";
     position = (1176 240);
     states = ("yes" "no");
}

node blockage
{
     label = "C44";
     position = (1252 233);
     states = ("yes" "no");
}

node pretexting
{
     label = "C46";
     position = (1322 233);
     states = ("yes" "no");
}

node authentication
{
     label = "C48";
     position = (112 422);
     states = ("incorrect" "correct");
}

node password_policy
{
     label = "C49";
     position = (367 519);
     states = ("weak" "medium" "strong");
}

node authorization
{
     label = "C50";
     position = (734 588);
     states = ("low" "medium" "high");
}

node server_version
{
     label = "C51";
     position = (1092 562);
     states = ("very old" "old" "latest");
}

node vaidation
{
     label = "C52";
     position = (1277 525);
     states = ("weak" "medium" "strong");
}

node suspitious_mail
{
     label = "C53";
     position = (198 492);
     states = ("low" "medium" "high");
}

node link_clicked
{
     label = "C54";
     position = (564 564);
     states = ("yes" "no");
}

node download_free_content
{
     label = "C55";
     position = (880 566);
     states = ("yes" "no");
}

potential (likelihood_of_attack)
{
 data = ( 0.3333 0.3334 0.3333 );
}

potential (typical_severity)
{
 data = ( 0.25 0.25 0.25 0.25 );
}

potential (skills_required)
{
 data = ( 0.01 0.33 0.33 0.33 );
}

potential (parametar_injection | vaidation password_policy authentication typical_severity likelihood_of_attack)
{
 data = (((((( 0.5 0.5 )
( 1.0 0.5 )
( 0.5 0.5 ))
(( 0.5 0.5 )
( 1.0 0.5 )
( 0.5 0.5 ))
(( 1.0 0.0 )
( 1.0 0.0 )
( 1.0 0.0 ))
(( 0.5 0.5 )
( 1.0 0.5 )
( 0.5 0.5 )))
((( 0.5 0.5 )
( 1.0 0.5 )
( 0.5 0.5 ))
(( 0.5 0.5 )
( 1.0 0.5 )
( 0.5 0.5 ))
(( 1.0 0.0 )
( 1.0 0.0 )
( 1.0 0.0 ))
(( 0.5 0.5 )
( 1.0 0.5 )
( 0.5 0.5 ))))
(((( 0.5 0.5 )
( 1.0 0.5 )
( 0.5 0.5 ))
(( 0.5 0.5 )
( 1.0 0.5 )
( 0.5 0.5 ))
(( 1.0 0.0 )
( 1.0 0.0 )
( 1.0 0.0 ))
(( 0.5 0.5 )
( 1.0 0.5 )
( 0.5 0.5 )))
((( 0.5 0.5 )
( 1.0 0.5 )
( 0.5 0.5 ))
(( 0.5 0.5 )
( 1.0 0.5 )
( 0.5 0.5 ))
(( 1.0 0.0 )
( 1.0 0.0 )
( 1.0 0.0 ))
(( 0.5 0.5 )
( 1.0 0.5 )
( 0.5 0.5 ))))
(((( 0.5 0.5 )
( 1.0 0.5 )
( 0.5 0.5 ))
(( 0.5 0.5 )
( 1.0 0.5 )
( 0.5 0.5 ))
(( 1.0 0.0 )
( 1.0 0.0 )
( 1.0 0.0 ))
(( 0.5 0.5 )
( 1.0 0.5 )
( 0.5 0.5 )))
((( 0.5 0.5 )
( 1.0 0.5 )
( 0.5 0.5 ))
(( 0.5 0.5 )
( 1.0 0.5 )
( 0.5 0.5 ))
(( 1.0 0.0 )
( 1.0 0.0 )
( 1.0 0.0 ))
(( 0.5 0.5 )
( 1.0 0.5 )
( 0.5 0.5 )))))
((((( 0.5 0.5 )
( 1.0 0.5 )
( 0.5 0.5 ))
(( 0.5 0.5 )
( 1.0 0.5 )
( 0.5 0.5 ))
(( 1.0 0.0 )
( 1.0 0.0 )
( 1.0 0.0 ))
(( 0.5 0.5 )
( 1.0 0.5 )
( 0.5 0.5 )))
((( 0.5 0.5 )
( 1.0 0.5 )
( 0.5 0.5 ))
(( 0.5 0.5 )
( 1.0 0.5 )
( 0.5 0.5 ))
(( 1.0 0.0 )
( 1.0 0.0 )
( 1.0 0.0 ))
(( 0.5 0.5 )
( 1.0 0.5 )
( 0.5 0.5 ))))
(((( 0.5 0.5 )
( 1.0 0.5 )
( 0.5 0.5 ))
(( 0.5 0.5 )
( 1.0 0.5 )
( 0.5 0.5 ))
(( 1.0 0.0 )
( 1.0 0.0 )
( 1.0 0.0 ))
(( 0.5 0.5 )
( 1.0 0.5 )
( 0.5 0.5 )))
((( 0.5 0.5 )
( 1.0 0.5 )
( 0.5 0.5 ))
(( 0.5 0.5 )
( 1.0 0.5 )
( 0.5 0.5 ))
(( 1.0 0.0 )
( 1.0 0.0 )
( 1.0 0.0 ))
(( 0.5 0.5 )
( 1.0 0.5 )
( 0.5 0.5 ))))
(((( 0.5 0.5 )
( 1.0 0.5 )
( 0.5 0.5 ))
(( 0.5 0.5 )
( 1.0 0.5 )
( 0.5 0.5 ))
(( 1.0 0.0 )
( 1.0 0.0 )
( 1.0 0.0 ))
(( 0.5 0.5 )
( 1.0 0.5 )
( 0.5 0.5 )))
((( 0.5 0.5 )
( 1.0 0.5 )
( 0.5 0.5 ))
(( 0.5 0.5 )
( 1.0 0.5 )
( 0.5 0.5 ))
(( 1.0 0.0 )
( 1.0 0.0 )
( 1.0 0.0 ))
(( 0.5 0.5 )
( 1.0 0.5 )
( 0.5 0.5 )))))
((((( 0.5 0.5 )
( 1.0 0.5 )
( 0.5 0.5 ))
(( 0.5 0.5 )
( 1.0 0.5 )
( 0.5 0.5 ))
(( 1.0 0.0 )
( 1.0 0.0 )
( 1.0 0.0 ))
(( 0.5 0.5 )
( 1.0 0.5 )
( 0.5 0.5 )))
((( 0.5 0.5 )
( 1.0 0.5 )
( 0.5 0.5 ))
(( 0.5 0.5 )
( 1.0 0.5 )
( 0.5 0.5 ))
(( 1.0 0.0 )
( 1.0 0.0 )
( 1.0 0.0 ))
(( 0.5 0.5 )
( 1.0 0.5 )
( 0.5 0.5 ))))
(((( 0.5 0.5 )
( 1.0 0.5 )
( 0.5 0.5 ))
(( 0.5 0.5 )
( 1.0 0.5 )
( 0.5 0.5 ))
(( 1.0 0.0 )
( 1.0 0.0 )
( 1.0 0.0 ))
(( 0.5 0.5 )
( 1.0 0.5 )
( 0.5 0.5 )))
((( 0.5 0.5 )
( 1.0 0.5 )
( 0.5 0.5 ))
(( 0.5 0.5 )
( 1.0 0.5 )
( 0.5 0.5 ))
(( 1.0 0.0 )
( 1.0 0.0 )
( 1.0 0.0 ))
(( 0.5 0.5 )
( 1.0 0.5 )
( 0.5 0.5 ))))
(((( 0.5 0.5 )
( 1.0 0.5 )
( 0.5 0.5 ))
(( 0.5 0.5 )
( 1.0 0.5 )
( 0.5 0.5 ))
(( 1.0 0.0 )
( 1.0 0.0 )
( 1.0 0.0 ))
(( 0.5 0.5 )
( 1.0 0.5 )
( 0.5 0.5 )))
((( 0.5 0.5 )
( 1.0 0.5 )
( 0.5 0.5 ))
(( 0.5 0.5 )
( 1.0 0.5 )
( 0.5 0.5 ))
(( 1.0 0.0 )
( 1.0 0.0 )
( 1.0 0.0 ))
(( 0.5 0.5 )
( 1.0 0.5 )
( 0.5 0.5 ))))));
}

potential (argument_injection | vaidation password_policy authentication typical_severity likelihood_of_attack)
{
 data = (((((( 0.5833333 0.41666666 )
( 0.6166667 0.38333333 )
( 0.98333335 0.35 ))
(( 0.56666666 0.4333333 )
( 0.59999996 0.4 )
( 0.9666667 0.36666667 ))
(( 0.53333336 0.46666667 )
( 0.56666666 0.4333333 )
( 0.93333334 0.4 ))
(( 0.5 0.5 )
( 0.54333335 0.45666668 )
( 0.91 0.42333332 )))
((( 0.5366667 0.46333334 )
( 0.5833333 0.41666666 )
( 0.96000004 0.37333333 ))
(( 0.49666667 0.50333333 )
( 0.52666664 0.47333333 )
( 0.91 0.42333332 ))
(( 0.45333335 0.5466667 )
( 0.49 0.51 )
( 0.8533333 0.48000002 ))
(( 0.4333333 0.56666666 )
( 0.48666668 0.5133333 )
( 0.87000006 0.46333334 ))))
(((( 0.56 0.43999997 )
( 0.57666665 0.42333332 )
( 0.94 0.39333335 ))
(( 0.55 0.45000002 )
( 0.56666666 0.4333333 )
( 0.93333334 0.4 ))
(( 0.5 0.5 )
( 0.53333336 0.46666667 )
( 0.90000004 0.4333333 ))
(( 0.4766667 0.5233333 )
( 0.50666666 0.49333334 )
( 0.87000006 0.46333334 )))
((( 0.47333333 0.52666664 )
( 0.5133333 0.48666668 )
( 0.87000006 0.46333334 ))
(( 0.43999997 0.56 )
( 0.47 0.53 )
( 0.8333333 0.5 ))
(( 0.41333333 0.58666664 )
( 0.46 0.54 )
( 0.82666665 0.50666666 ))
(( 0.40333334 0.59666663 )
( 0.44333336 0.5566667 )
( 0.8 0.53333336 ))))
(((( 0.46333334 0.5366667 )
( 0.49 0.51 )
( 0.84999996 0.48333335 ))
(( 0.43666664 0.56333333 )
( 0.48000002 0.52 )
( 0.83666664 0.49666667 ))
(( 0.42333332 0.57666665 )
( 0.46 0.54 )
( 0.82 0.5133333 ))
(( 0.39666668 0.6033333 )
( 0.42 0.58 )
( 0.7966666 0.5366667 )))
((( 0.4466667 0.58666664 )
( 0.47333333 0.52666664 )
( 0.83666664 0.49666667 ))
(( 0.42333332 0.57666665 )
( 0.45000002 0.55 )
( 0.81666666 0.51666665 ))
(( 0.40666667 0.5933333 )
( 0.44333336 0.5566667 )
( 0.7966666 0.5366667 ))
(( 0.38666666 0.6133333 )
( 0.40333334 0.59666663 )
( 0.7633333 0.57 )))))
((((( 0.5833333 0.41666666 )
( 0.6166667 0.38333333 )
( 0.98333335 0.35 ))
(( 0.56666666 0.4333333 )
( 0.59999996 0.4 )
( 0.9666667 0.36666667 ))
(( 0.53333336 0.46666667 )
( 0.56666666 0.4333333 )
( 0.93333334 0.4 ))
(( 0.5 0.5 )
( 0.54333335 0.45666668 )
( 0.91 0.42333332 )))
((( 0.5366667 0.46333334 )
( 0.5833333 0.41666666 )
( 0.96000004 0.37333333 ))
(( 0.49666667 0.50333333 )
( 0.52666664 0.47333333 )
( 0.91 0.42333332 ))
(( 0.45333335 0.5466667 )
( 0.49 0.51 )
( 0.8533333 0.48000002 ))
(( 0.4333333 0.56666666 )
( 0.48666668 0.5133333 )
( 0.87000006 0.46333334 ))))
(((( 0.56 0.43999997 )
( 0.57666665 0.42333332 )
( 0.94 0.39333335 ))
(( 0.55 0.45000002 )
( 0.56666666 0.4333333 )
( 0.93333334 0.4 ))
(( 0.5 0.5 )
( 0.53333336 0.46666667 )
( 0.90000004 0.4333333 ))
(( 0.4766667 0.5233333 )
( 0.50666666 0.49333334 )
( 0.87000006 0.46333334 )))
((( 0.47333333 0.52666664 )
( 0.5133333 0.48666668 )
( 0.87000006 0.46333334 ))
(( 0.43999997 0.56 )
( 0.47 0.53 )
( 0.8333333 0.5 ))
(( 0.41333333 0.58666664 )
( 0.46 0.54 )
( 0.82666665 0.50666666 ))
(( 0.40333334 0.59666663 )
( 0.44333336 0.5566667 )
( 0.8 0.53333336 ))))
(((( 0.46333334 0.5366667 )
( 0.49 0.51 )
( 0.84999996 0.48333335 ))
(( 0.43666664 0.56333333 )
( 0.48000002 0.52 )
( 0.83666664 0.49666667 ))
(( 0.42333332 0.57666665 )
( 0.46 0.54 )
( 0.82 0.5133333 ))
(( 0.39666668 0.6033333 )
( 0.42 0.58 )
( 0.7966666 0.5366667 )))
((( 0.4466667 0.58666664 )
( 0.47333333 0.52666664 )
( 0.83666664 0.49666667 ))
(( 0.42333332 0.57666665 )
( 0.45000002 0.55 )
( 0.81666666 0.51666665 ))
(( 0.40666667 0.5933333 )
( 0.44333336 0.5566667 )
( 0.7966666 0.5366667 ))
(( 0.38666666 0.6133333 )
( 0.40333334 0.59666663 )
( 0.7633333 0.57 )))))
((((( 0.5 0.5 )
( 0.5 0.5 )
( 1.0 0.5 ))
(( 0.5 0.5 )
( 0.5 0.5 )
( 1.0 0.5 ))
(( 0.5 0.5 )
( 0.5 0.5 )
( 1.0 0.5 ))
(( 0.5 0.5 )
( 0.5 0.5 )
( 1.0 0.5 )))
((( 0.5 0.5 )
( 0.5 0.5 )
( 1.0 0.5 ))
(( 0.5 0.5 )
( 0.5 0.5 )
( 1.0 0.5 ))
(( 0.5 0.5 )
( 0.5 0.5 )
( 1.0 0.5 ))
(( 0.5 0.5 )
( 0.5 0.5 )
( 1.0 0.5 ))))
(((( 0.5 0.5 )
( 0.5 0.5 )
( 1.0 0.5 ))
(( 0.5 0.5 )
( 0.5 0.5 )
( 1.0 0.5 ))
(( 0.5 0.5 )
( 0.5 0.5 )
( 1.0 0.5 ))
(( 0.5 0.5 )
( 0.5 0.5 )
( 1.0 0.5 )))
((( 0.5 0.5 )
( 0.5 0.5 )
( 1.0 0.5 ))
(( 0.5 0.5 )
( 0.5 0.5 )
( 1.0 0.5 ))
(( 0.5 0.5 )
( 0.5 0.5 )
( 1.0 0.5 ))
(( 0.5 0.5 )
( 0.5 0.5 )
( 1.0 0.5 ))))
(((( 0.5 0.5 )
( 0.5 0.5 )
( 1.0 0.5 ))
(( 0.5 0.5 )
( 0.5 0.5 )
( 1.0 0.5 ))
(( 0.5 0.5 )
( 0.5 0.5 )
( 1.0 0.5 ))
(( 0.5 0.5 )
( 0.5 0.5 )
( 1.0 0.5 )))
((( 0.5 0.5 )
( 0.5 0.5 )
( 1.0 0.5 ))
(( 0.5 0.5 )
( 0.5 0.5 )
( 1.0 0.5 ))
(( 0.5 0.5 )
( 0.5 0.5 )
( 1.0 0.5 ))
(( 0.5 0.5 )
( 0.5 0.5 )
( 1.0 0.5 ))))));
}

potential (formal_string_injection | server_version authorization skills_required typical_severity likelihood_of_attack)
{
 data = (((((( 0.75 0.25 )
( 0.76 0.24 )
( 0.79 0.21 ))
(( 0.58 0.62 )
( 0.63 0.37 )
( 0.7 0.3 ))
(( 0.52 0.48 )
( 0.55 0.45 )
( 0.57 0.43 ))
(( 0.43 0.57 )
( 0.47 0.53 )
( 0.5 0.5 )))
((( 0.65 0.35 )
( 0.66 0.34 )
( 0.67 0.33 ))
(( 0.52 0.48 )
( 0.6 0.4 )
( 0.65 0.35 ))
(( 0.48 0.52 )
( 0.52 0.48 )
( 0.55 0.45 ))
(( 0.36 0.64 )
( 0.4 0.6 )
( 0.45 0.55 )))
((( 0.6 0.4 )
( 0.65 0.35 )
( 0.7 0.3 ))
(( 0.55 0.45 )
( 0.6 0.4 )
( 0.62 0.38 ))
(( 0.44 0.56 )
( 0.5 0.5 )
( 0.6 0.4 ))
(( 0.3 0.7 )
( 0.35 0.65 )
( 0.4 0.6 )))
((( 0.55 0.45 )
( 0.6 0.4 )
( 0.7 0.3 ))
(( 0.45 0.65 )
( 0.5 0.5 )
( 0.55 0.45 ))
(( 0.4 0.6 )
( 0.45 0.55 )
( 0.5 0.5 ))
(( 0.35 0.65 )
( 0.4 0.6 )
( 0.45 0.55 ))))
(((( 0.65 0.35 )
( 0.69 0.31 )
( 0.75 0.25 ))
(( 0.55 0.45 )
( 0.6 0.4 )
( 0.67 0.33 ))
(( 0.52 0.48 )
( 0.57 0.43 )
( 0.62 0.38 ))
(( 0.4 0.6 )
( 0.45 0.55 )
( 0.5 0.5 )))
((( 0.65 0.35 )
( 0.69 0.31 )
( 0.72 0.28 ))
(( 0.53 0.47 )
( 0.59 0.41 )
( 0.68 0.32 ))
(( 0.4 0.6 )
( 0.47 0.53 )
( 0.55 0.45 ))
(( 0.43 0.57 )
( 0.46 0.54 )
( 0.49 0.51 )))
((( 0.6 0.4 )
( 0.65 0.35 )
( 0.7 0.3 ))
(( 0.45 0.55 )
( 0.5 0.5 )
( 0.55 0.45 ))
(( 0.4 0.6 )
( 0.44 0.56 )
( 0.5 0.5 ))
(( 0.3 0.7 )
( 0.35 0.65 )
( 0.41 0.59 )))
((( 0.6 0.4 )
( 0.62 0.38 )
( 0.66 0.34 ))
(( 0.42 0.58 )
( 0.44 0.56 )
( 0.55 0.45 ))
(( 0.4 0.6 )
( 0.48 0.52 )
( 0.52 0.48 ))
(( 0.31 0.69 )
( 0.35 0.65 )
( 0.4 0.6 ))))
(((( 0.6 0.4 )
( 0.65 0.35 )
( 0.7 0.3 ))
(( 0.52 0.48 )
( 0.57 0.43 )
( 0.62 0.38 ))
(( 0.45 0.55 )
( 0.49 0.51 )
( 0.53 0.47 ))
(( 0.36 0.64 )
( 0.42 0.58 )
( 0.5 0.5 )))
((( 0.6 0.4 )
( 0.62 0.38 )
( 0.65 0.35 ))
(( 0.45 0.55 )
( 0.49 0.51 )
( 0.55 0.45 ))
(( 0.39 0.61 )
( 0.45 0.55 )
( 0.5 0.5 ))
(( 0.35 0.65 )
( 0.4 0.6 )
( 0.46 0.54 )))
((( 0.59 0.41 )
( 0.63 0.37 )
( 0.68 0.32 ))
(( 0.4 0.6 )
( 0.46 0.54 )
( 0.56 0.44 ))
(( 0.36 0.64 )
( 0.47 0.53 )
( 0.56 0.46 ))
(( 0.39 0.61 )
( 0.42 0.58 )
( 0.49 0.51 )))
((( 0.5 0.5 )
( 0.54 0.46 )
( 0.61 0.39 ))
(( 0.4 0.6 )
( 0.45 0.55 )
( 0.52 0.48 ))
(( 0.35 0.65 )
( 0.4 0.6 )
( 0.45 0.55 ))
(( 0.36 0.64 )
( 0.39 0.61 )
( 0.42 0.58 )))))
((((( 0.7 0.3 )
( 0.73 0.27 )
( 0.78 0.22 ))
(( 0.6 0.4 )
( 0.67 0.33 )
( 0.72 0.28 ))
(( 0.54 0.46 )
( 0.58 0.42 )
( 0.6 0.4 ))
(( 0.45 0.55 )
( 0.5 0.5 )
( 0.55 0.45 )))
((( 0.69 0.31 )
( 0.75 0.25 )
( 0.8 0.2 ))
(( 0.53 0.47 )
( 0.61 0.39 )
( 0.66 0.34 ))
(( 0.46 0.54 )
( 0.54 0.46 )
( 0.6 0.4 ))
(( 0.4 0.6 )
( 0.45 0.55 )
( 0.5 0.5 )))
((( 0.65 0.35 )
( 0.7 0.3 )
( 0.75 0.25 ))
(( 0.5 0.5 )
( 0.54 0.46 )
( 0.62 0.38 ))
(( 0.43 0.57 )
( 0.5 0.5 )
( 0.56 0.44 ))
(( 0.36 0.64 )
( 0.4 0.6 )
( 0.45 0.65 )))
((( 0.6 0.4 )
( 0.65 0.35 )
( 0.7 0.3 ))
(( 0.45 0.65 )
( 0.5 0.5 )
( 0.55 0.45 ))
(( 0.4 0.6 )
( 0.45 0.55 )
( 0.5 0.5 ))
(( 0.35 0.65 )
( 0.4 0.6 )
( 0.45 0.55 ))))
(((( 0.65 0.35 )
( 0.69 0.31 )
( 0.75 0.25 ))
(( 0.55 0.45 )
( 0.6 0.4 )
( 0.67 0.33 ))
(( 0.52 0.48 )
( 0.57 0.43 )
( 0.62 0.38 ))
(( 0.4 0.6 )
( 0.45 0.55 )
( 0.5 0.5 )))
((( 0.65 0.35 )
( 0.69 0.31 )
( 0.72 0.28 ))
(( 0.53 0.47 )
( 0.59 0.41 )
( 0.68 0.32 ))
(( 0.4 0.6 )
( 0.47 0.53 )
( 0.55 0.45 ))
(( 0.43 0.57 )
( 0.46 0.54 )
( 0.49 0.51 )))
((( 0.6 0.4 )
( 0.65 0.35 )
( 0.7 0.3 ))
(( 0.45 0.55 )
( 0.5 0.5 )
( 0.55 0.45 ))
(( 0.4 0.6 )
( 0.44 0.56 )
( 0.5 0.5 ))
(( 0.3 0.7 )
( 0.35 0.65 )
( 0.41 0.59 )))
((( 0.6 0.4 )
( 0.62 0.38 )
( 0.66 0.34 ))
(( 0.42 0.58 )
( 0.44 0.56 )
( 0.55 0.45 ))
(( 0.4 0.6 )
( 0.48 0.52 )
( 0.52 0.48 ))
(( 0.31 0.69 )
( 0.35 0.65 )
( 0.4 0.6 ))))
(((( 0.6 0.4 )
( 0.65 0.35 )
( 0.7 0.3 ))
(( 0.52 0.48 )
( 0.57 0.43 )
( 0.62 0.38 ))
(( 0.45 0.55 )
( 0.49 0.51 )
( 0.53 0.47 ))
(( 0.36 0.64 )
( 0.42 0.58 )
( 0.5 0.5 )))
((( 0.6 0.4 )
( 0.62 0.38 )
( 0.65 0.35 ))
(( 0.45 0.55 )
( 0.49 0.51 )
( 0.55 0.45 ))
(( 0.39 0.61 )
( 0.45 0.55 )
( 0.5 0.5 ))
(( 0.35 0.65 )
( 0.4 0.6 )
( 0.46 0.54 )))
((( 0.59 0.41 )
( 0.63 0.37 )
( 0.68 0.32 ))
(( 0.4 0.6 )
( 0.46 0.54 )
( 0.56 0.44 ))
(( 0.36 0.64 )
( 0.47 0.53 )
( 0.56 0.46 ))
(( 0.39 0.61 )
( 0.42 0.58 )
( 0.49 0.51 )))
((( 0.5 0.5 )
( 0.54 0.46 )
( 0.61 0.39 ))
(( 0.4 0.6 )
( 0.45 0.55 )
( 0.52 0.48 ))
(( 0.35 0.65 )
( 0.4 0.6 )
( 0.45 0.55 ))
(( 0.36 0.64 )
( 0.39 0.61 )
( 0.42 0.58 )))))
((((( 0.65 0.35 )
( 0.7 0.3 )
( 0.74 0.26 ))
(( 0.53 0.47 )
( 0.61 0.39 )
( 0.65 0.35 ))
(( 0.46 0.54 )
( 0.51 0.49 )
( 0.55 0.44999996 ))
(( 0.39 0.61 )
( 0.42 0.58 )
( 0.49 0.51 )))
((( 0.63 0.37 )
( 0.65 0.35 )
( 0.71 0.29 ))
(( 0.47 0.53 )
( 0.57 0.42999998 )
( 0.61 0.39 ))
(( 0.4 0.6 )
( 0.49 0.51 )
( 0.51 0.49 ))
(( 0.36 0.64 )
( 0.4 0.6 )
( 0.46 0.54 )))
((( 0.61 0.39 )
( 0.63 0.37 )
( 0.66 0.34 ))
(( 0.43999997 0.56 )
( 0.47 0.53 )
( 0.57 0.42999998 ))
(( 0.38 0.62 )
( 0.42 0.58 )
( 0.49 0.51 ))
(( 0.31 0.69 )
( 0.35 0.65 )
( 0.4 0.6 )))
((( 0.56 0.43999997 )
( 0.6 0.4 )
( 0.64 0.36 ))
(( 0.41 0.59 )
( 0.43999997 0.56 )
( 0.52 0.48 ))
(( 0.35 0.65 )
( 0.4 0.6 )
( 0.44999996 0.55 ))
(( 0.29 0.71 )
( 0.3 0.7 )
( 0.35 0.6 ))))
(((( 0.6 0.4 )
( 0.65 0.35 )
( 0.7 0.3 ))
(( 0.5 0.5 )
( 0.58 0.42 )
( 0.63 0.37 ))
(( 0.43 0.57 )
( 0.48 0.52 )
( 0.51 0.49 ))
(( 0.33 0.67 )
( 0.4 0.6 )
( 0.45 0.55 )))
((( 0.6 0.4 )
( 0.61 0.39 )
( 0.68 0.32 ))
(( 0.43 0.57 )
( 0.54 0.46 )
( 0.58 0.42 ))
(( 0.36 0.64 )
( 0.43 0.57 )
( 0.48 0.52 ))
(( 0.33 0.67 )
( 0.36 0.64 )
( 0.41 0.59 )))
((( 0.57 0.43 )
( 0.6 0.4 )
( 0.61 0.39 ))
(( 0.4 0.6 )
( 0.42 0.58 )
( 0.51 0.49 ))
(( 0.33 0.67 )
( 0.39 0.61 )
( 0.45 0.55 ))
(( 0.27 0.73 )
( 0.3 0.7 )
( 0.35 0.65 )))
((( 0.51 0.49 )
( 0.55 0.45 )
( 0.6 0.4 ))
(( 0.39 0.61 )
( 0.4 0.6 )
( 0.49 0.51 ))
(( 0.31 0.69 )
( 0.37 0.63 )
( 0.4 0.6 ))
(( 0.25 0.75 )
( 0.29 0.71 )
( 0.33 0.67 ))))
(((( 0.57 0.43 )
( 0.61 0.39 )
( 0.65 0.35 ))
(( 0.48 0.52 )
( 0.53 0.47 )
( 0.6 0.4 ))
(( 0.4 0.6 )
( 0.43 0.57 )
( 0.47 0.53 ))
(( 0.3 0.7 )
( 0.35 0.65 )
( 0.4 0.6 )))
((( 0.55 0.45 )
( 0.57 0.43 )
( 0.61 0.39 ))
(( 0.4 0.6 )
( 0.5 0.6 )
( 0.6 0.4 ))
(( 0.33 0.67 )
( 0.39 0.61 )
( 0.34 0.46 ))
(( 0.3 0.7 )
( 0.33 0.67 )
( 0.37 0.63 )))
((( 0.53 0.47 )
( 0.57 0.43 )
( 0.59 0.41 ))
(( 0.37 0.63 )
( 0.4 0.6 )
( 0.45 0.55 ))
(( 0.3 0.7 )
( 0.36 0.64 )
( 0.4 0.6 ))
(( 0.24 0.76 )
( 0.28 0.72 )
( 0.3 0.7 )))
((( 0.46 0.54 )
( 0.5 0.5 )
( 0.54 0.46 ))
(( 0.35 0.65 )
( 0.38 0.62 )
( 0.42 0.58 ))
(( 0.29 0.71 )
( 0.35 0.65 )
( 0.37 0.63 ))
(( 0.24 0.76 )
( 0.25 0.75 )
( 0.26 0.74 ))))));
}

potential (flash_injection | vaidation suspitious_mail link_clicked typical_severity)
{
 data = ((((( 0.6666667 0.33333334 )
( 0.6666667 0.33333334 )
( 0.6666667 0.33333334 )
( 0.6666667 0.33333334 ))
(( 0.6666667 0.33333334 )
( 0.6666667 0.33333334 )
( 0.6666667 0.33333334 )
( 0.6666667 0.33333334 )))
((( 0.6666667 0.33333334 )
( 0.6666667 0.33333334 )
( 0.6666667 0.33333334 )
( 0.6666667 0.33333334 ))
(( 0.6666667 0.33333334 )
( 0.6666667 0.33333334 )
( 0.6666667 0.33333334 )
( 0.6666667 0.33333334 )))
((( 0.6666667 0.33333334 )
( 0.6666667 0.33333334 )
( 0.6666667 0.33333334 )
( 0.6666667 0.33333334 ))
(( 0.6666667 0.33333334 )
( 0.6666667 0.33333334 )
( 0.6666667 0.33333334 )
( 0.6666667 0.33333334 ))))
(((( 0.6666667 0.33333334 )
( 0.6666667 0.33333334 )
( 0.6666667 0.33333334 )
( 0.6666667 0.33333334 ))
(( 0.6666667 0.33333334 )
( 0.6666667 0.33333334 )
( 0.6666667 0.33333334 )
( 0.6666667 0.33333334 )))
((( 0.6666667 0.33333334 )
( 0.6666667 0.33333334 )
( 0.6666667 0.33333334 )
( 0.6666667 0.33333334 ))
(( 0.6666667 0.33333334 )
( 0.6666667 0.33333334 )
( 0.6666667 0.33333334 )
( 0.6666667 0.33333334 )))
((( 0.6666667 0.33333334 )
( 0.6666667 0.33333334 )
( 0.6666667 0.33333334 )
( 0.6666667 0.33333334 ))
(( 0.6666667 0.33333334 )
( 0.6666667 0.33333334 )
( 0.6666667 0.33333334 )
( 0.6666667 0.33333334 ))))
(((( 0.6666667 0.33333334 )
( 0.6666667 0.33333334 )
( 0.6666667 0.33333334 )
( 0.6666667 0.33333334 ))
(( 0.6666667 0.33333334 )
( 0.6666667 0.33333334 )
( 0.6666667 0.33333334 )
( 0.6666667 0.33333334 )))
((( 0.6666667 0.33333334 )
( 0.6666667 0.33333334 )
( 0.6666667 0.33333334 )
( 0.6666667 0.33333334 ))
(( 0.6666667 0.33333334 )
( 0.6666667 0.33333334 )
( 0.6666667 0.33333334 )
( 0.6666667 0.33333334 )))
((( 0.6666667 0.33333334 )
( 0.6666667 0.33333334 )
( 0.6666667 0.33333334 )
( 0.6666667 0.33333334 ))
(( 0.6666667 0.33333334 )
( 0.6666667 0.33333334 )
( 0.6666667 0.33333334 )
( 0.6666667 0.33333334 )))));
}

potential (identity_spoofing | vaidation authorization password_policy authentication typical_severity likelihood_of_attack)
{
 data = ((((((( 0.5 0.5 )
( 1.0 0.0 )
( 0.5 0.5 ))
(( 0.5 0.5 )
( 1.0 0.0 )
( 0.5 0.5 ))
(( 0.5 0.5 )
( 1.0 0.0 )
( 0.5 0.5 ))
(( 0.5 0.5 )
( 1.0 0.0 )
( 0.5 0.5 )))
((( 0.5 0.5 )
( 1.0 0.0 )
( 0.5 0.5 ))
(( 0.5 0.5 )
( 1.0 0.0 )
( 0.5 0.5 ))
(( 0.5 0.5 )
( 1.0 0.0 )
( 0.5 0.5 ))
(( 0.5 0.5 )
( 1.0 0.0 )
( 0.5 0.5 ))))
(((( 0.5 0.5 )
( 1.0 0.0 )
( 0.5 0.5 ))
(( 0.5 0.5 )
( 1.0 0.0 )
( 0.5 0.5 ))
(( 0.5 0.5 )
( 1.0 0.0 )
( 0.5 0.5 ))
(( 0.5 0.5 )
( 1.0 0.0 )
( 0.5 0.5 )))
((( 0.5 0.5 )
( 1.0 0.0 )
( 0.5 0.5 ))
(( 0.5 0.5 )
( 1.0 0.0 )
( 0.5 0.5 ))
(( 0.5 0.5 )
( 1.0 0.0 )
( 0.5 0.5 ))
(( 0.5 0.5 )
( 1.0 0.0 )
( 0.5 0.5 ))))
(((( 0.5 0.5 )
( 1.0 0.0 )
( 0.5 0.5 ))
(( 0.5 0.5 )
( 1.0 0.0 )
( 0.5 0.5 ))
(( 0.5 0.5 )
( 1.0 0.0 )
( 0.5 0.5 ))
(( 0.5 0.5 )
( 1.0 0.0 )
( 0.5 0.5 )))
((( 0.5 0.5 )
( 1.0 0.0 )
( 0.5 0.5 ))
(( 0.5 0.5 )
( 1.0 0.0 )
( 0.5 0.5 ))
(( 0.5 0.5 )
( 1.0 0.0 )
( 0.5 0.5 ))
(( 0.5 0.5 )
( 1.0 0.0 )
( 0.5 0.5 )))))
((((( 0.5 0.5 )
( 1.0 0.0 )
( 0.5 0.5 ))
(( 0.5 0.5 )
( 1.0 0.0 )
( 0.5 0.5 ))
(( 0.5 0.5 )
( 1.0 0.0 )
( 0.5 0.5 ))
(( 0.5 0.5 )
( 1.0 0.0 )
( 0.5 0.5 )))
((( 0.5 0.5 )
( 1.0 0.0 )
( 0.5 0.5 ))
(( 0.5 0.5 )
( 1.0 0.0 )
( 0.5 0.5 ))
(( 0.5 0.5 )
( 1.0 0.0 )
( 0.5 0.5 ))
(( 0.5 0.5 )
( 1.0 0.0 )
( 0.5 0.5 ))))
(((( 0.5 0.5 )
( 1.0 0.0 )
( 0.5 0.5 ))
(( 0.5 0.5 )
( 1.0 0.0 )
( 0.5 0.5 ))
(( 0.5 0.5 )
( 1.0 0.0 )
( 0.5 0.5 ))
(( 0.5 0.5 )
( 1.0 0.0 )
( 0.5 0.5 )))
((( 0.5 0.5 )
( 1.0 0.0 )
( 0.5 0.5 ))
(( 0.5 0.5 )
( 1.0 0.0 )
( 0.5 0.5 ))
(( 0.5 0.5 )
( 1.0 0.0 )
( 0.5 0.5 ))
(( 0.5 0.5 )
( 1.0 0.0 )
( 0.5 0.5 ))))
(((( 0.5 0.5 )
( 1.0 0.0 )
( 0.5 0.5 ))
(( 0.5 0.5 )
( 1.0 0.0 )
( 0.5 0.5 ))
(( 0.5 0.5 )
( 1.0 0.0 )
( 0.5 0.5 ))
(( 0.5 0.5 )
( 1.0 0.0 )
( 0.5 0.5 )))
((( 0.5 0.5 )
( 1.0 0.0 )
( 0.5 0.5 ))
(( 0.5 0.5 )
( 1.0 0.0 )
( 0.5 0.5 ))
(( 0.5 0.5 )
( 1.0 0.0 )
( 0.5 0.5 ))
(( 0.5 0.5 )
( 1.0 0.0 )
( 0.5 0.5 )))))
((((( 0.5 0.5 )
( 1.0 0.0 )
( 0.5 0.5 ))
(( 0.5 0.5 )
( 1.0 0.0 )
( 0.5 0.5 ))
(( 0.5 0.5 )
( 1.0 0.0 )
( 0.5 0.5 ))
(( 0.5 0.5 )
( 1.0 0.0 )
( 0.5 0.5 )))
((( 0.5 0.5 )
( 1.0 0.0 )
( 0.5 0.5 ))
(( 0.5 0.5 )
( 1.0 0.0 )
( 0.5 0.5 ))
(( 0.5 0.5 )
( 1.0 0.0 )
( 0.5 0.5 ))
(( 0.5 0.5 )
( 1.0 0.0 )
( 0.5 0.5 ))))
(((( 0.5 0.5 )
( 1.0 0.0 )
( 0.5 0.5 ))
(( 0.5 0.5 )
( 1.0 0.0 )
( 0.5 0.5 ))
(( 0.5 0.5 )
( 1.0 0.0 )
( 0.5 0.5 ))
(( 0.5 0.5 )
( 1.0 0.0 )
( 0.5 0.5 )))
((( 0.5 0.5 )
( 1.0 0.0 )
( 0.5 0.5 ))
(( 0.5 0.5 )
( 1.0 0.0 )
( 0.5 0.5 ))
(( 0.5 0.5 )
( 1.0 0.0 )
( 0.5 0.5 ))
(( 0.5 0.5 )
( 1.0 0.0 )
( 0.5 0.5 ))))
(((( 0.5 0.5 )
( 1.0 0.0 )
( 0.5 0.5 ))
(( 0.5 0.5 )
( 1.0 0.0 )
( 0.5 0.5 ))
(( 0.5 0.5 )
( 1.0 0.0 )
( 0.5 0.5 ))
(( 0.5 0.5 )
( 1.0 0.0 )
( 0.5 0.5 )))
((( 0.5 0.5 )
( 1.0 0.0 )
( 0.5 0.5 ))
(( 0.5 0.5 )
( 1.0 0.0 )
( 0.5 0.5 ))
(( 0.5 0.5 )
( 1.0 0.0 )
( 0.5 0.5 ))
(( 0.5 0.5 )
( 1.0 0.0 )
( 0.5 0.5 ))))))
(((((( 0.5 0.5 )
( 1.0 0.0 )
( 0.5 0.5 ))
(( 0.5 0.5 )
( 1.0 0.0 )
( 0.5 0.5 ))
(( 0.5 0.5 )
( 1.0 0.0 )
( 0.5 0.5 ))
(( 0.5 0.5 )
( 1.0 0.0 )
( 0.5 0.5 )))
((( 0.5 0.5 )
( 1.0 0.0 )
( 0.5 0.5 ))
(( 0.5 0.5 )
( 1.0 0.0 )
( 0.5 0.5 ))
(( 0.5 0.5 )
( 1.0 0.0 )
( 0.5 0.5 ))
(( 0.5 0.5 )
( 1.0 0.0 )
( 0.5 0.5 ))))
(((( 0.5 0.5 )
( 1.0 0.0 )
( 0.5 0.5 ))
(( 0.5 0.5 )
( 1.0 0.0 )
( 0.5 0.5 ))
(( 0.5 0.5 )
( 1.0 0.0 )
( 0.5 0.5 ))
(( 0.5 0.5 )
( 1.0 0.0 )
( 0.5 0.5 )))
((( 0.5 0.5 )
( 1.0 0.0 )
( 0.5 0.5 ))
(( 0.5 0.5 )
( 1.0 0.0 )
( 0.5 0.5 ))
(( 0.5 0.5 )
( 1.0 0.0 )
( 0.5 0.5 ))
(( 0.5 0.5 )
( 1.0 0.0 )
( 0.5 0.5 ))))
(((( 0.5 0.5 )
( 1.0 0.0 )
( 0.5 0.5 ))
(( 0.5 0.5 )
( 1.0 0.0 )
( 0.5 0.5 ))
(( 0.5 0.5 )
( 1.0 0.0 )
( 0.5 0.5 ))
(( 0.5 0.5 )
( 1.0 0.0 )
( 0.5 0.5 )))
((( 0.5 0.5 )
( 1.0 0.0 )
( 0.5 0.5 ))
(( 0.5 0.5 )
( 1.0 0.0 )
( 0.5 0.5 ))
(( 0.5 0.5 )
( 1.0 0.0 )
( 0.5 0.5 ))
(( 0.5 0.5 )
( 1.0 0.0 )
( 0.5 0.5 )))))
((((( 0.5 0.5 )
( 1.0 0.0 )
( 0.5 0.5 ))
(( 0.5 0.5 )
( 1.0 0.0 )
( 0.5 0.5 ))
(( 0.5 0.5 )
( 1.0 0.0 )
( 0.5 0.5 ))
(( 0.5 0.5 )
( 1.0 0.0 )
( 0.5 0.5 )))
((( 0.5 0.5 )
( 1.0 0.0 )
( 0.5 0.5 ))
(( 0.5 0.5 )
( 1.0 0.0 )
( 0.5 0.5 ))
(( 0.5 0.5 )
( 1.0 0.0 )
( 0.5 0.5 ))
(( 0.5 0.5 )
( 1.0 0.0 )
( 0.5 0.5 ))))
(((( 0.5 0.5 )
( 1.0 0.0 )
( 0.5 0.5 ))
(( 0.5 0.5 )
( 1.0 0.0 )
( 0.5 0.5 ))
(( 0.5 0.5 )
( 1.0 0.0 )
( 0.5 0.5 ))
(( 0.5 0.5 )
( 1.0 0.0 )
( 0.5 0.5 )))
((( 0.5 0.5 )
( 1.0 0.0 )
( 0.5 0.5 ))
(( 0.5 0.5 )
( 1.0 0.0 )
( 0.5 0.5 ))
(( 0.5 0.5 )
( 1.0 0.0 )
( 0.5 0.5 ))
(( 0.5 0.5 )
( 1.0 0.0 )
( 0.5 0.5 ))))
(((( 0.5 0.5 )
( 1.0 0.0 )
( 0.5 0.5 ))
(( 0.5 0.5 )
( 1.0 0.0 )
( 0.5 0.5 ))
(( 0.5 0.5 )
( 1.0 0.0 )
( 0.5 0.5 ))
(( 0.5 0.5 )
( 1.0 0.0 )
( 0.5 0.5 )))
((( 0.5 0.5 )
( 1.0 0.0 )
( 0.5 0.5 ))
(( 0.5 0.5 )
( 1.0 0.0 )
( 0.5 0.5 ))
(( 0.5 0.5 )
( 1.0 0.0 )
( 0.5 0.5 ))
(( 0.5 0.5 )
( 1.0 0.0 )
( 0.5 0.5 )))))
((((( 0.5 0.5 )
( 1.0 0.0 )
( 0.5 0.5 ))
(( 0.5 0.5 )
( 1.0 0.0 )
( 0.5 0.5 ))
(( 0.5 0.5 )
( 1.0 0.0 )
( 0.5 0.5 ))
(( 0.5 0.5 )
( 1.0 0.0 )
( 0.5 0.5 )))
((( 0.5 0.5 )
( 1.0 0.0 )
( 0.5 0.5 ))
(( 0.5 0.5 )
( 1.0 0.0 )
( 0.5 0.5 ))
(( 0.5 0.5 )
( 1.0 0.0 )
( 0.5 0.5 ))
(( 0.5 0.5 )
( 1.0 0.0 )
( 0.5 0.5 ))))
(((( 0.5 0.5 )
( 1.0 0.0 )
( 0.5 0.5 ))
(( 0.5 0.5 )
( 1.0 0.0 )
( 0.5 0.5 ))
(( 0.5 0.5 )
( 1.0 0.0 )
( 0.5 0.5 ))
(( 0.5 0.5 )
( 1.0 0.0 )
( 0.5 0.5 )))
((( 0.5 0.5 )
( 1.0 0.0 )
( 0.5 0.5 ))
(( 0.5 0.5 )
( 1.0 0.0 )
( 0.5 0.5 ))
(( 0.5 0.5 )
( 1.0 0.0 )
( 0.5 0.5 ))
(( 0.5 0.5 )
( 1.0 0.0 )
( 0.5 0.5 ))))
(((( 0.5 0.5 )
( 1.0 0.0 )
( 0.5 0.5 ))
(( 0.5 0.5 )
( 1.0 0.0 )
( 0.5 0.5 ))
(( 0.5 0.5 )
( 1.0 0.0 )
( 0.5 0.5 ))
(( 0.5 0.5 )
( 1.0 0.0 )
( 0.5 0.5 )))
((( 0.5 0.5 )
( 1.0 0.0 )
( 0.5 0.5 ))
(( 0.5 0.5 )
( 1.0 0.0 )
( 0.5 0.5 ))
(( 0.5 0.5 )
( 1.0 0.0 )
( 0.5 0.5 ))
(( 0.5 0.5 )
( 1.0 0.0 )
( 0.5 0.5 ))))))
(((((( 0.5 0.5 )
( 1.0 0.0 )
( 0.5 0.5 ))
(( 0.5 0.5 )
( 1.0 0.0 )
( 0.5 0.5 ))
(( 0.5 0.5 )
( 1.0 0.0 )
( 0.5 0.5 ))
(( 0.5 0.5 )
( 1.0 0.0 )
( 0.5 0.5 )))
((( 0.5 0.5 )
( 1.0 0.0 )
( 0.5 0.5 ))
(( 0.5 0.5 )
( 1.0 0.0 )
( 0.5 0.5 ))
(( 0.5 0.5 )
( 1.0 0.0 )
( 0.5 0.5 ))
(( 0.5 0.5 )
( 1.0 0.0 )
( 0.5 0.5 ))))
(((( 0.5 0.5 )
( 1.0 0.0 )
( 0.5 0.5 ))
(( 0.5 0.5 )
( 1.0 0.0 )
( 0.5 0.5 ))
(( 0.5 0.5 )
( 1.0 0.0 )
( 0.5 0.5 ))
(( 0.5 0.5 )
( 1.0 0.0 )
( 0.5 0.5 )))
((( 0.5 0.5 )
( 1.0 0.0 )
( 0.5 0.5 ))
(( 0.5 0.5 )
( 1.0 0.0 )
( 0.5 0.5 ))
(( 0.5 0.5 )
( 1.0 0.0 )
( 0.5 0.5 ))
(( 0.5 0.5 )
( 1.0 0.0 )
( 0.5 0.5 ))))
(((( 0.5 0.5 )
( 1.0 0.0 )
( 0.5 0.5 ))
(( 0.5 0.5 )
( 1.0 0.0 )
( 0.5 0.5 ))
(( 0.5 0.5 )
( 1.0 0.0 )
( 0.5 0.5 ))
(( 0.5 0.5 )
( 1.0 0.0 )
( 0.5 0.5 )))
((( 0.5 0.5 )
( 1.0 0.0 )
( 0.5 0.5 ))
(( 0.5 0.5 )
( 1.0 0.0 )
( 0.5 0.5 ))
(( 0.5 0.5 )
( 1.0 0.0 )
( 0.5 0.5 ))
(( 0.5 0.5 )
( 1.0 0.0 )
( 0.5 0.5 )))))
((((( 0.5 0.5 )
( 1.0 0.0 )
( 0.5 0.5 ))
(( 0.5 0.5 )
( 1.0 0.0 )
( 0.5 0.5 ))
(( 0.5 0.5 )
( 1.0 0.0 )
( 0.5 0.5 ))
(( 0.5 0.5 )
( 1.0 0.0 )
( 0.5 0.5 )))
((( 0.5 0.5 )
( 1.0 0.0 )
( 0.5 0.5 ))
(( 0.5 0.5 )
( 1.0 0.0 )
( 0.5 0.5 ))
(( 0.5 0.5 )
( 1.0 0.0 )
( 0.5 0.5 ))
(( 0.5 0.5 )
( 1.0 0.0 )
( 0.5 0.5 ))))
(((( 0.5 0.5 )
( 1.0 0.0 )
( 0.5 0.5 ))
(( 0.5 0.5 )
( 1.0 0.0 )
( 0.5 0.5 ))
(( 0.5 0.5 )
( 1.0 0.0 )
( 0.5 0.5 ))
(( 0.5 0.5 )
( 1.0 0.0 )
( 0.5 0.5 )))
((( 0.5 0.5 )
( 1.0 0.0 )
( 0.5 0.5 ))
(( 0.5 0.5 )
( 1.0 0.0 )
( 0.5 0.5 ))
(( 0.5 0.5 )
( 1.0 0.0 )
( 0.5 0.5 ))
(( 0.5 0.5 )
( 1.0 0.0 )
( 0.5 0.5 ))))
(((( 0.5 0.5 )
( 1.0 0.0 )
( 0.5 0.5 ))
(( 0.5 0.5 )
( 1.0 0.0 )
( 0.5 0.5 ))
(( 0.5 0.5 )
( 1.0 0.0 )
( 0.5 0.5 ))
(( 0.5 0.5 )
( 1.0 0.0 )
( 0.5 0.5 )))
((( 0.5 0.5 )
( 1.0 0.0 )
( 0.5 0.5 ))
(( 0.5 0.5 )
( 1.0 0.0 )
( 0.5 0.5 ))
(( 0.5 0.5 )
( 1.0 0.0 )
( 0.5 0.5 ))
(( 0.5 0.5 )
( 1.0 0.0 )
( 0.5 0.5 )))))
((((( 0.5 0.5 )
( 1.0 0.0 )
( 0.5 0.5 ))
(( 0.5 0.5 )
( 1.0 0.0 )
( 0.5 0.5 ))
(( 0.5 0.5 )
( 1.0 0.0 )
( 0.5 0.5 ))
(( 0.5 0.5 )
( 1.0 0.0 )
( 0.5 0.5 )))
((( 0.5 0.5 )
( 1.0 0.0 )
( 0.5 0.5 ))
(( 0.5 0.5 )
( 1.0 0.0 )
( 0.5 0.5 ))
(( 0.5 0.5 )
( 1.0 0.0 )
( 0.5 0.5 ))
(( 0.5 0.5 )
( 1.0 0.0 )
( 0.5 0.5 ))))
(((( 0.5 0.5 )
( 1.0 0.0 )
( 0.5 0.5 ))
(( 0.5 0.5 )
( 1.0 0.0 )
( 0.5 0.5 ))
(( 0.5 0.5 )
( 1.0 0.0 )
( 0.5 0.5 ))
(( 0.5 0.5 )
( 1.0 0.0 )
( 0.5 0.5 )))
((( 0.5 0.5 )
( 1.0 0.0 )
( 0.5 0.5 ))
(( 0.5 0.5 )
( 1.0 0.0 )
( 0.5 0.5 ))
(( 0.5 0.5 )
( 1.0 0.0 )
( 0.5 0.5 ))
(( 0.5 0.5 )
( 1.0 0.0 )
( 0.5 0.5 ))))
(((( 0.5 0.5 )
( 1.0 0.0 )
( 0.5 0.5 ))
(( 0.5 0.5 )
( 1.0 0.0 )
( 0.5 0.5 ))
(( 0.5 0.5 )
( 1.0 0.0 )
( 0.5 0.5 ))
(( 0.5 0.5 )
( 1.0 0.0 )
( 0.5 0.5 )))
((( 0.5 0.5 )
( 1.0 0.0 )
( 0.5 0.5 ))
(( 0.5 0.5 )
( 1.0 0.0 )
( 0.5 0.5 ))
(( 0.5 0.5 )
( 1.0 0.0 )
( 0.5 0.5 ))
(( 0.5 0.5 )
( 1.0 0.0 )
( 0.5 0.5 )))))));
}

potential (pharming | vaidation link_clicked suspitious_mail typical_severity likelihood_of_attack)
{
 data = (((((( 0.87 0.13 )
( 0.89 0.11 )
( 0.93 0.07 ))
(( 0.85 0.15 )
( 0.88 0.12 )
( 0.91 0.09 ))
(( 0.8 0.2 )
( 0.84 0.16 )
( 0.87 0.13 ))
(( 0.74 0.26 )
( 0.8 0.2 )
( 0.83 0.17 )))
((( 0.89 0.11 )
( 0.92 0.08 )
( 0.93 0.07 ))
(( 0.87 0.13 )
( 0.9 0.1 )
( 0.92 0.18 ))
(( 0.84 0.16 )
( 0.88 0.12 )
( 0.9 0.1 ))
(( 0.79 0.21 )
( 0.85 0.15 )
( 0.87 0.13 )))
((( 0.91 0.09 )
( 0.93 0.07 )
( 0.94 0.06 ))
(( 0.89 0.11 )
( 0.92 0.08 )
( 0.94 0.06 ))
(( 0.85 0.15 )
( 0.9 0.1 )
( 0.92 0.08 ))
(( 0.8 0.2 )
( 0.86 0.14 )
( 0.89 0.11 ))))
(((( 0.87 0.13 )
( 0.89 0.11 )
( 0.93 0.07 ))
(( 0.85 0.15 )
( 0.88 0.12 )
( 0.91 0.09 ))
(( 0.8 0.2 )
( 0.84 0.16 )
( 0.87 0.13 ))
(( 0.74 0.26 )
( 0.8 0.2 )
( 0.83 0.17 )))
((( 0.87 0.13 )
( 0.9 0.1 )
( 0.91 0.09 ))
(( 0.85 0.15 )
( 0.88 0.12 )
( 0.9 0.1 ))
(( 0.82 0.14 )
( 0.86 0.14 )
( 0.88 0.12 ))
(( 0.77 0.23 )
( 0.83 0.17 )
( 0.85 0.15 )))
((( 0.89 0.11 )
( 0.91 0.09 )
( 0.93 0.07 ))
(( 0.87 0.13 )
( 0.9 0.1 )
( 0.92 0.08 ))
(( 0.83 0.17 )
( 0.88 0.12 )
( 0.9 0.1 ))
(( 0.78 0.22 )
( 0.84 0.16 )
( 0.87 0.23 )))))
((((( 0.85 0.15 )
( 0.87 0.13 )
( 0.91 0.09 ))
(( 0.83 0.17 )
( 0.86 0.14 )
( 0.89 0.11 ))
(( 0.78 0.22 )
( 0.82 0.18 )
( 0.85 0.15 ))
(( 0.72 0.28 )
( 0.78 0.22 )
( 0.81 0.19 )))
((( 0.87 0.85 )
( 0.9 0.1 )
( 0.91 0.09 ))
(( 0.85 15.0 )
( 0.88 0.12 )
( 0.9 0.1 ))
(( 0.82 0.18 )
( 0.86 0.14 )
( 0.88 0.12 ))
(( 0.77 0.23 )
( 0.83 0.17 )
( 0.85 0.15 )))
((( 0.89 0.11 )
( 0.91 0.09 )
( 0.92 0.08 ))
(( 0.87 0.13 )
( 0.9 0.1 )
( 0.92 0.08 ))
(( 0.83 0.17 )
( 0.88 0.12 )
( 0.9 0.1 ))
(( 0.78 0.22 )
( 0.84 0.16 )
( 0.87 0.13 ))))
(((( 0.85 0.15 )
( 0.87 0.13 )
( 0.91 0.09 ))
(( 0.83 0.17 )
( 0.86 0.14 )
( 0.89 0.11 ))
(( 0.78 0.22 )
( 0.82 0.18 )
( 0.85 0.15 ))
(( 0.72 0.28 )
( 0.78 0.22 )
( 0.81 0.19 )))
((( 0.85 0.15 )
( 0.88 0.12 )
( 0.89 0.11 ))
(( 0.83 0.17 )
( 0.86 0.14 )
( 0.88 0.22 ))
(( 0.8 0.2 )
( 0.82 0.18 )
( 0.86 0.14 ))
(( 0.75 0.25 )
( 0.81 0.19 )
( 0.83 0.17 )))
((( 0.87 0.13 )
( 0.89 0.11 )
( 0.91 0.09 ))
(( 0.85 0.15 )
( 0.88 0.12 )
( 0.9 0.1 ))
(( 0.81 0.19 )
( 0.86 0.14 )
( 0.88 0.12 ))
(( 0.76 0.24 )
( 0.82 0.18 )
( 0.85 0.25 )))))
((((( 0.83 0.17 )
( 0.85 0.15 )
( 0.89 0.11 ))
(( 0.81 0.19 )
( 0.84 0.16 )
( 0.87 0.13 ))
(( 0.76 0.24 )
( 0.8 0.2 )
( 0.83 0.17 ))
(( 0.7 0.3 )
( 0.76 0.24 )
( 0.89 0.21 )))
((( 0.85 0.15 )
( 0.88 0.12 )
( 0.89 0.11 ))
(( 0.83 0.17 )
( 0.86 0.14 )
( 0.88 0.12 ))
(( 0.8 0.2 )
( 0.84 0.16 )
( 0.86 0.14 ))
(( 0.75 0.25 )
( 0.81 0.19 )
( 0.83 0.17 )))
((( 0.87 0.23 )
( 0.89 0.11 )
( 0.9 0.1 ))
(( 0.85 0.15 )
( 0.88 0.12 )
( 0.9 0.1 ))
(( 0.81 0.19 )
( 0.86 0.14 )
( 0.88 0.12 ))
(( 0.78 0.22 )
( 0.82 0.18 )
( 0.85 0.15 ))))
(((( 0.83 0.17 )
( 0.85 0.15 )
( 0.89 0.11 ))
(( 0.81 0.19 )
( 0.84 0.16 )
( 0.87 0.13 ))
(( 0.76 0.24 )
( 0.8 0.2 )
( 0.83 0.17 ))
(( 0.7 0.3 )
( 0.76 0.24 )
( 0.79 0.21 )))
((( 0.83 0.17 )
( 0.86 0.14 )
( 0.87 0.13 ))
(( 0.81 0.19 )
( 0.84 0.16 )
( 0.86 0.14 ))
(( 0.78 0.22 )
( 0.82 0.18 )
( 0.84 0.16 ))
(( 0.73 0.27 )
( 0.79 0.21 )
( 0.81 0.19 )))
((( 0.85 0.15 )
( 0.87 0.13 )
( 0.89 0.11 ))
(( 0.83 0.17 )
( 0.86 0.14 )
( 0.88 0.12 ))
(( 0.79 0.21 )
( 0.84 0.16 )
( 0.86 0.14 ))
(( 0.74 0.26 )
( 0.8 0.2 )
( 0.83 0.27 ))))));
}

potential (phishing | suspitious_mail password_policy download_free_content link_clicked typical_severity likelihood_of_attack)
{
 data = ((((((( 0.5 0.5 )
( 0.5 0.5 )
( 1.0 0.0 ))
(( 0.5 0.5 )
( 0.5 0.5 )
( 1.0 0.0 ))
(( 0.5 0.5 )
( 0.5 0.5 )
( 1.0 0.0 ))
(( 0.5 0.5 )
( 0.5 0.5 )
( 1.0 0.0 )))
((( 0.5 0.5 )
( 0.5 0.5 )
( 1.0 0.0 ))
(( 0.5 0.5 )
( 0.5 0.5 )
( 1.0 0.0 ))
(( 0.5 0.5 )
( 0.5 0.5 )
( 1.0 0.0 ))
(( 0.5 0.5 )
( 0.5 0.5 )
( 1.0 0.0 ))))
(((( 0.5 0.5 )
( 0.5 0.5 )
( 1.0 0.0 ))
(( 0.5 0.5 )
( 0.5 0.5 )
( 1.0 0.0 ))
(( 0.5 0.5 )
( 0.5 0.5 )
( 1.0 0.0 ))
(( 0.5 0.5 )
( 0.5 0.5 )
( 1.0 0.0 )))
((( 0.5 0.5 )
( 0.5 0.5 )
( 1.0 0.0 ))
(( 0.5 0.5 )
( 0.5 0.5 )
( 1.0 0.0 ))
(( 0.5 0.5 )
( 0.5 0.5 )
( 1.0 0.0 ))
(( 0.5 0.5 )
( 0.5 0.5 )
( 1.0 0.0 )))))
((((( 0.5 0.5 )
( 0.5 0.5 )
( 1.0 0.0 ))
(( 0.5 0.5 )
( 0.5 0.5 )
( 1.0 0.0 ))
(( 0.5 0.5 )
( 0.5 0.5 )
( 1.0 0.0 ))
(( 0.5 0.5 )
( 0.5 0.5 )
( 1.0 0.0 )))
((( 0.5 0.5 )
( 0.5 0.5 )
( 1.0 0.0 ))
(( 0.5 0.5 )
( 0.5 0.5 )
( 1.0 0.0 ))
(( 0.5 0.5 )
( 0.5 0.5 )
( 1.0 0.0 ))
(( 0.5 0.5 )
( 0.5 0.5 )
( 1.0 0.0 ))))
(((( 0.5 0.5 )
( 0.5 0.5 )
( 1.0 0.0 ))
(( 0.5 0.5 )
( 0.5 0.5 )
( 1.0 0.0 ))
(( 0.5 0.5 )
( 0.5 0.5 )
( 1.0 0.0 ))
(( 0.5 0.5 )
( 0.5 0.5 )
( 1.0 0.0 )))
((( 0.5 0.5 )
( 0.5 0.5 )
( 1.0 0.0 ))
(( 0.5 0.5 )
( 0.5 0.5 )
( 1.0 0.0 ))
(( 0.5 0.5 )
( 0.5 0.5 )
( 1.0 0.0 ))
(( 0.5 0.5 )
( 0.5 0.5 )
( 1.0 0.0 )))))
((((( 0.5 0.5 )
( 0.5 0.5 )
( 1.0 0.0 ))
(( 0.5 0.5 )
( 0.5 0.5 )
( 1.0 0.0 ))
(( 0.5 0.5 )
( 0.5 0.5 )
( 1.0 0.0 ))
(( 0.5 0.5 )
( 0.5 0.5 )
( 1.0 0.0 )))
((( 0.5 0.5 )
( 0.5 0.5 )
( 1.0 0.0 ))
(( 0.5 0.5 )
( 0.5 0.5 )
( 1.0 0.0 ))
(( 0.5 0.5 )
( 0.5 0.5 )
( 1.0 0.0 ))
(( 0.5 0.5 )
( 0.5 0.5 )
( 1.0 0.0 ))))
(((( 0.5 0.5 )
( 0.5 0.5 )
( 1.0 0.0 ))
(( 0.5 0.5 )
( 0.5 0.5 )
( 1.0 0.0 ))
(( 0.5 0.5 )
( 0.5 0.5 )
( 1.0 0.0 ))
(( 0.5 0.5 )
( 0.5 0.5 )
( 1.0 0.0 )))
((( 0.5 0.5 )
( 0.5 0.5 )
( 1.0 0.0 ))
(( 0.5 0.5 )
( 0.5 0.5 )
( 1.0 0.0 ))
(( 0.5 0.5 )
( 0.5 0.5 )
( 1.0 0.0 ))
(( 0.5 0.5 )
( 0.5 0.5 )
( 1.0 0.0 ))))))
(((((( 0.5 0.5 )
( 0.5 0.5 )
( 1.0 0.0 ))
(( 0.5 0.5 )
( 0.5 0.5 )
( 1.0 0.0 ))
(( 0.5 0.5 )
( 0.5 0.5 )
( 1.0 0.0 ))
(( 0.5 0.5 )
( 0.5 0.5 )
( 1.0 0.0 )))
((( 0.5 0.5 )
( 0.5 0.5 )
( 1.0 0.0 ))
(( 0.5 0.5 )
( 0.5 0.5 )
( 1.0 0.0 ))
(( 0.5 0.5 )
( 0.5 0.5 )
( 1.0 0.0 ))
(( 0.5 0.5 )
( 0.5 0.5 )
( 1.0 0.0 ))))
(((( 0.5 0.5 )
( 0.5 0.5 )
( 1.0 0.0 ))
(( 0.5 0.5 )
( 0.5 0.5 )
( 1.0 0.0 ))
(( 0.5 0.5 )
( 0.5 0.5 )
( 1.0 0.0 ))
(( 0.5 0.5 )
( 0.5 0.5 )
( 1.0 0.0 )))
((( 0.5 0.5 )
( 0.5 0.5 )
( 1.0 0.0 ))
(( 0.5 0.5 )
( 0.5 0.5 )
( 1.0 0.0 ))
(( 0.5 0.5 )
( 0.5 0.5 )
( 1.0 0.0 ))
(( 0.5 0.5 )
( 0.5 0.5 )
( 1.0 0.0 )))))
((((( 0.5 0.5 )
( 0.5 0.5 )
( 1.0 0.0 ))
(( 0.5 0.5 )
( 0.5 0.5 )
( 1.0 0.0 ))
(( 0.5 0.5 )
( 0.5 0.5 )
( 1.0 0.0 ))
(( 0.5 0.5 )
( 0.5 0.5 )
( 1.0 0.0 )))
((( 0.5 0.5 )
( 0.5 0.5 )
( 1.0 0.0 ))
(( 0.5 0.5 )
( 0.5 0.5 )
( 1.0 0.0 ))
(( 0.5 0.5 )
( 0.5 0.5 )
( 1.0 0.0 ))
(( 0.5 0.5 )
( 0.5 0.5 )
( 1.0 0.0 ))))
(((( 0.5 0.5 )
( 0.5 0.5 )
( 1.0 0.0 ))
(( 0.5 0.5 )
( 0.5 0.5 )
( 1.0 0.0 ))
(( 0.5 0.5 )
( 0.5 0.5 )
( 1.0 0.0 ))
(( 0.5 0.5 )
( 0.5 0.5 )
( 1.0 0.0 )))
((( 0.5 0.5 )
( 0.5 0.5 )
( 1.0 0.0 ))
(( 0.5 0.5 )
( 0.5 0.5 )
( 1.0 0.0 ))
(( 0.5 0.5 )
( 0.5 0.5 )
( 1.0 0.0 ))
(( 0.5 0.5 )
( 0.5 0.5 )
( 1.0 0.0 )))))
((((( 0.5 0.5 )
( 0.5 0.5 )
( 1.0 0.0 ))
(( 0.5 0.5 )
( 0.5 0.5 )
( 1.0 0.0 ))
(( 0.5 0.5 )
( 0.5 0.5 )
( 1.0 0.0 ))
(( 0.5 0.5 )
( 0.5 0.5 )
( 1.0 0.0 )))
((( 0.5 0.5 )
( 0.5 0.5 )
( 1.0 0.0 ))
(( 0.5 0.5 )
( 0.5 0.5 )
( 1.0 0.0 ))
(( 0.5 0.5 )
( 0.5 0.5 )
( 1.0 0.0 ))
(( 0.5 0.5 )
( 0.5 0.5 )
( 1.0 0.0 ))))
(((( 0.5 0.5 )
( 0.5 0.5 )
( 1.0 0.0 ))
(( 0.5 0.5 )
( 0.5 0.5 )
( 1.0 0.0 ))
(( 0.5 0.5 )
( 0.5 0.5 )
( 1.0 0.0 ))
(( 0.5 0.5 )
( 0.5 0.5 )
( 1.0 0.0 )))
((( 0.5 0.5 )
( 0.5 0.5 )
( 1.0 0.0 ))
(( 0.5 0.5 )
( 0.5 0.5 )
( 1.0 0.0 ))
(( 0.5 0.5 )
( 0.5 0.5 )
( 1.0 0.0 ))
(( 0.5 0.5 )
( 0.5 0.5 )
( 1.0 0.0 ))))))
(((((( 0.5 0.5 )
( 0.5 0.5 )
( 1.0 0.0 ))
(( 0.5 0.5 )
( 0.5 0.5 )
( 1.0 0.0 ))
(( 0.5 0.5 )
( 0.5 0.5 )
( 1.0 0.0 ))
(( 0.5 0.5 )
( 0.5 0.5 )
( 1.0 0.0 )))
((( 0.5 0.5 )
( 0.5 0.5 )
( 1.0 0.0 ))
(( 0.5 0.5 )
( 0.5 0.5 )
( 1.0 0.0 ))
(( 0.5 0.5 )
( 0.5 0.5 )
( 1.0 0.0 ))
(( 0.5 0.5 )
( 0.5 0.5 )
( 1.0 0.0 ))))
(((( 0.5 0.5 )
( 0.5 0.5 )
( 1.0 0.0 ))
(( 0.5 0.5 )
( 0.5 0.5 )
( 1.0 0.0 ))
(( 0.5 0.5 )
( 0.5 0.5 )
( 1.0 0.0 ))
(( 0.5 0.5 )
( 0.5 0.5 )
( 1.0 0.0 )))
((( 0.5 0.5 )
( 0.5 0.5 )
( 1.0 0.0 ))
(( 0.5 0.5 )
( 0.5 0.5 )
( 1.0 0.0 ))
(( 0.5 0.5 )
( 0.5 0.5 )
( 1.0 0.0 ))
(( 0.5 0.5 )
( 0.5 0.5 )
( 1.0 0.0 )))))
((((( 0.5 0.5 )
( 0.5 0.5 )
( 1.0 0.0 ))
(( 0.5 0.5 )
( 0.5 0.5 )
( 1.0 0.0 ))
(( 0.5 0.5 )
( 0.5 0.5 )
( 1.0 0.0 ))
(( 0.5 0.5 )
( 0.5 0.5 )
( 1.0 0.0 )))
((( 0.5 0.5 )
( 0.5 0.5 )
( 1.0 0.0 ))
(( 0.5 0.5 )
( 0.5 0.5 )
( 1.0 0.0 ))
(( 0.5 0.5 )
( 0.5 0.5 )
( 1.0 0.0 ))
(( 0.5 0.5 )
( 0.5 0.5 )
( 1.0 0.0 ))))
(((( 0.5 0.5 )
( 0.5 0.5 )
( 1.0 0.0 ))
(( 0.5 0.5 )
( 0.5 0.5 )
( 1.0 0.0 ))
(( 0.5 0.5 )
( 0.5 0.5 )
( 1.0 0.0 ))
(( 0.5 0.5 )
( 0.5 0.5 )
( 1.0 0.0 )))
((( 0.5 0.5 )
( 0.5 0.5 )
( 1.0 0.0 ))
(( 0.5 0.5 )
( 0.5 0.5 )
( 1.0 0.0 ))
(( 0.5 0.5 )
( 0.5 0.5 )
( 1.0 0.0 ))
(( 0.5 0.5 )
( 0.5 0.5 )
( 1.0 0.0 )))))
((((( 0.5 0.5 )
( 0.5 0.5 )
( 1.0 0.0 ))
(( 0.5 0.5 )
( 0.5 0.5 )
( 1.0 0.0 ))
(( 0.5 0.5 )
( 0.5 0.5 )
( 1.0 0.0 ))
(( 0.5 0.5 )
( 0.5 0.5 )
( 1.0 0.0 )))
((( 0.5 0.5 )
( 0.5 0.5 )
( 1.0 0.0 ))
(( 0.5 0.5 )
( 0.5 0.5 )
( 1.0 0.0 ))
(( 0.5 0.5 )
( 0.5 0.5 )
( 1.0 0.0 ))
(( 0.5 0.5 )
( 0.5 0.5 )
( 1.0 0.0 ))))
(((( 0.5 0.5 )
( 0.5 0.5 )
( 1.0 0.0 ))
(( 0.5 0.5 )
( 0.5 0.5 )
( 1.0 0.0 ))
(( 0.5 0.5 )
( 0.5 0.5 )
( 1.0 0.0 ))
(( 0.5 0.5 )
( 0.5 0.5 )
( 1.0 0.0 )))
((( 0.5 0.5 )
( 0.5 0.5 )
( 1.0 0.0 ))
(( 0.5 0.5 )
( 0.5 0.5 )
( 1.0 0.0 ))
(( 0.5 0.5 )
( 0.5 0.5 )
( 1.0 0.0 ))
(( 0.5 0.5 )
( 0.5 0.5 )
( 1.0 0.0 )))))));
}

potential (dns_rebinding | typical_severity likelihood_of_attack)
{
 data = ((( 0.5 0.5 )
( 0.5 0.5 )
( 1.0 0.0 ))
(( 0.5 0.5 )
( 0.5 0.5 )
( 1.0 0.0 ))
(( 0.5 0.5 )
( 0.5 0.5 )
( 1.0 0.0 ))
(( 0.5 0.5 )
( 0.5 0.5 )
( 1.0 0.0 )));
}

potential (token_impersonaation | typical_severity)
{
 data = (( 0.5 0.5 )
( 0.5 0.5 )
( 0.5 0.5 )
( 0.5 0.5 ));
}

potential (terrestrial_jamming | typical_severity likelihood_of_attack)
{
 data = ((( 1.0 0.0 )
( 0.5 0.5 )
( 0.5 0.5 ))
(( 1.0 0.0 )
( 0.5 0.5 )
( 0.5 0.5 ))
(( 1.0 0.0 )
( 0.5 0.5 )
( 0.5 0.5 ))
(( 1.0 0.0 )
( 0.5 0.5 )
( 0.5 0.5 )));
}

potential (resource_location_spoofing | typical_severity likelihood_of_attack)
{
 data = ((( 0.5 0.5 )
( 1.0 0.0 )
( 0.5 0.5 ))
(( 0.5 0.5 )
( 1.0 0.0 )
( 0.5 0.5 ))
(( 0.5 0.5 )
( 1.0 0.0 )
( 0.5 0.5 ))
(( 0.5 0.5 )
( 1.0 0.0 )
( 0.5 0.5 )));
}

potential (action_spoofing | typical_severity likelihood_of_attack)
{
 data = ((( 0.5 0.5 )
( 0.5 0.5 )
( 1.0 0.0 ))
(( 0.5 0.5 )
( 0.5 0.5 )
( 1.0 0.0 ))
(( 0.5 0.5 )
( 0.5 0.5 )
( 1.0 0.0 ))
(( 0.5 0.5 )
( 0.5 0.5 )
( 1.0 0.0 )));
}

potential (clickjacking | typical_severity likelihood_of_attack)
{
 data = ((( 0.5 0.5 )
( 1.0 0.0 )
( 0.5 0.5 ))
(( 0.5 0.5 )
( 1.0 0.0 )
( 0.5 0.5 ))
(( 0.5 0.5 )
( 1.0 0.0 )
( 0.5 0.5 ))
(( 0.5 0.5 )
( 1.0 0.0 )
( 0.5 0.5 )));
}

potential (task_impersonation | typical_severity likelihood_of_attack)
{
 data = ((( 0.5 0.5 )
( 1.0 0.0 )
( 0.5 0.5 ))
(( 0.5 0.5 )
( 1.0 0.0 )
( 0.5 0.5 ))
(( 0.5 0.5 )
( 1.0 0.0 )
( 0.5 0.5 ))
(( 0.5 0.5 )
( 1.0 0.0 )
( 0.5 0.5 )));
}

potential (software_integrity_attack | typical_severity)
{
 data = (( 0.5 0.5 )
( 0.5 0.5 )
( 0.5 0.5 )
( 0.5 0.5 ));
}

potential (malicius_human_behavior | typical_severity likelihood_of_attack)
{
 data = ((( 0.5 0.5 )
( 1.0 0.0 )
( 0.5 0.5 ))
(( 0.5 0.5 )
( 1.0 0.0 )
( 0.5 0.5 ))
(( 0.5 0.5 )
( 1.0 0.0 )
( 0.5 0.5 ))
(( 0.5 0.5 )
( 1.0 0.0 )
( 0.5 0.5 )));
}

potential (influence_perception | typical_severity likelihood_of_attack)
{
 data = ((( 0.5 0.5 )
( 0.5 0.5 )
( 1.0 0.0 ))
(( 0.5 0.5 )
( 0.5 0.5 )
( 1.0 0.0 ))
(( 0.5 0.5 )
( 0.5 0.5 )
( 1.0 0.0 ))
(( 0.5 0.5 )
( 0.5 0.5 )
( 1.0 0.0 )));
}

potential (route_disabiling | typical_severity likelihood_of_attack)
{
 data = ((( 1.0 0.0 )
( 0.5 0.5 )
( 0.5 0.5 ))
(( 1.0 0.0 )
( 0.5 0.5 )
( 0.5 0.5 ))
(( 1.0 0.0 )
( 0.5 0.5 )
( 0.5 0.5 ))
(( 1.0 0.0 )
( 0.5 0.5 )
( 0.5 0.5 )));
}

potential (blockage | typical_severity likelihood_of_attack)
{
 data = ((( 0.5 0.5 )
( 1.0 0.0 )
( 0.5 0.5 ))
(( 0.5 0.5 )
( 1.0 0.0 )
( 0.5 0.5 ))
(( 0.5 0.5 )
( 1.0 0.0 )
( 0.5 0.5 ))
(( 0.5 0.5 )
( 1.0 0.0 )
( 0.5 0.5 )));
}

potential (pretexting | typical_severity likelihood_of_attack)
{
 data = ((( 0.5 0.5 )
( 1.0 0.0 )
( 0.5 0.5 ))
(( 0.5 0.5 )
( 1.0 0.0 )
( 0.5 0.5 ))
(( 0.5 0.5 )
( 1.0 0.0 )
( 0.5 0.5 ))
(( 0.5 0.5 )
( 1.0 0.0 )
( 0.5 0.5 )));
}

potential (authentication)
{
 data = ( 0.5 0.5 );
}

potential (password_policy)
{
 data = ( 0.334 0.333 0.333 );
}

potential (authorization)
{
 data = ( 0.334 0.333 0.333 );
}

potential (server_version)
{
 data = ( 0.334 0.333 0.333 );
}

potential (vaidation)
{
 data = ( 0.334 0.333 0.333 );
}

potential (suspitious_mail)
{
 data = ( 0.333 0.333 0.334 );
}

potential (link_clicked)
{
 data = ( 0.9 0.1 );
}

potential (download_free_content)
{
 data = ( 0.8 0.2 );
}

